digraph Tree {
node [shape=box] ;
0 [label="Male <= 0.5\ngini = 0.476\nsamples = 730\nvalue = [445, 285]\nclass = 0"] ;
1 [label="3rd_class <= 0.5\ngini = 0.389\nsamples = 261\nvalue = [69, 192]\nclass = 1"] ;
0 -> 1 [labeldistance=2.5, labelangle=45, headlabel="True"] ;
2 [label="fare <= 26.125\ngini = 0.131\nsamples = 156\nvalue = [11, 145]\nclass = 1"] ;
1 -> 2 ;
3 [label="age <= 57.5\ngini = 0.231\nsamples = 60\nvalue = [8, 52]\nclass = 1"] ;
2 -> 3 ;
4 [label="age <= 27.5\ngini = 0.209\nsamples = 59\nvalue = [7, 52]\nclass = 1"] ;
3 -> 4 ;
5 [label="age <= 25.5\ngini = 0.34\nsamples = 23\nvalue = [5, 18]\nclass = 1"] ;
4 -> 5 ;
6 [label="fare <= 22.0\ngini = 0.266\nsamples = 19\nvalue = [3, 16]\nclass = 1"] ;
5 -> 6 ;
7 [label="fare <= 20.25\ngini = 0.355\nsamples = 13\nvalue = [3, 10]\nclass = 1"] ;
6 -> 7 ;
8 [label="sibsp <= 0.5\ngini = 0.298\nsamples = 11\nvalue = [2, 9]\nclass = 1"] ;
7 -> 8 ;
9 [label="age <= 23.5\ngini = 0.198\nsamples = 9\nvalue = [1, 8]\nclass = 1"] ;
8 -> 9 ;
10 [label="gini = 0.0\nsamples = 7\nvalue = [0, 7]\nclass = 1"] ;
9 -> 10 ;
11 [label="gini = 0.5\nsamples = 2\nvalue = [1, 1]\nclass = 0"] ;
9 -> 11 ;
12 [label="age <= 21.0\ngini = 0.5\nsamples = 2\nvalue = [1, 1]\nclass = 0"] ;
8 -> 12 ;
13 [label="gini = 0.0\nsamples = 1\nvalue = [1, 0]\nclass = 0"] ;
12 -> 13 ;
14 [label="gini = 0.0\nsamples = 1\nvalue = [0, 1]\nclass = 1"] ;
12 -> 14 ;
15 [label="age <= 21.5\ngini = 0.5\nsamples = 2\nvalue = [1, 1]\nclass = 0"] ;
7 -> 15 ;
16 [label="gini = 0.0\nsamples = 1\nvalue = [0, 1]\nclass = 1"] ;
15 -> 16 ;
17 [label="gini = 0.0\nsamples = 1\nvalue = [1, 0]\nclass = 0"] ;
15 -> 17 ;
18 [label="gini = 0.0\nsamples = 6\nvalue = [0, 6]\nclass = 1"] ;
6 -> 18 ;
19 [label="fare <= 17.429\ngini = 0.5\nsamples = 4\nvalue = [2, 2]\nclass = 0"] ;
5 -> 19 ;
20 [label="gini = 0.0\nsamples = 2\nvalue = [0, 2]\nclass = 1"] ;
19 -> 20 ;
21 [label="gini = 0.0\nsamples = 2\nvalue = [2, 0]\nclass = 0"] ;
19 -> 21 ;
22 [label="age <= 37.0\ngini = 0.105\nsamples = 36\nvalue = [2, 34]\nclass = 1"] ;
4 -> 22 ;
23 [label="gini = 0.0\nsamples = 22\nvalue = [0, 22]\nclass = 1"] ;
22 -> 23 ;
24 [label="age <= 39.0\ngini = 0.245\nsamples = 14\nvalue = [2, 12]\nclass = 1"] ;
22 -> 24 ;
25 [label="gini = 0.0\nsamples = 1\nvalue = [1, 0]\nclass = 0"] ;
24 -> 25 ;
26 [label="sibsp <= 0.5\ngini = 0.142\nsamples = 13\nvalue = [1, 12]\nclass = 1"] ;
24 -> 26 ;
27 [label="gini = 0.0\nsamples = 10\nvalue = [0, 10]\nclass = 1"] ;
26 -> 27 ;
28 [label="1st_class <= 0.5\ngini = 0.444\nsamples = 3\nvalue = [1, 2]\nclass = 1"] ;
26 -> 28 ;
29 [label="age <= 43.0\ngini = 0.5\nsamples = 2\nvalue = [1, 1]\nclass = 0"] ;
28 -> 29 ;
30 [label="gini = 0.0\nsamples = 1\nvalue = [0, 1]\nclass = 1"] ;
29 -> 30 ;
31 [label="gini = 0.0\nsamples = 1\nvalue = [1, 0]\nclass = 0"] ;
29 -> 31 ;
32 [label="gini = 0.0\nsamples = 1\nvalue = [0, 1]\nclass = 1"] ;
28 -> 32 ;
33 [label="gini = 0.0\nsamples = 1\nvalue = [1, 0]\nclass = 0"] ;
3 -> 33 ;
34 [label="fare <= 149.035\ngini = 0.061\nsamples = 96\nvalue = [3, 93]\nclass = 1"] ;
2 -> 34 ;
35 [label="gini = 0.0\nsamples = 74\nvalue = [0, 74]\nclass = 1"] ;
34 -> 35 ;
36 [label="age <= 10.0\ngini = 0.236\nsamples = 22\nvalue = [3, 19]\nclass = 1"] ;
34 -> 36 ;
37 [label="gini = 0.0\nsamples = 1\nvalue = [1, 0]\nclass = 0"] ;
36 -> 37 ;
38 [label="age <= 56.5\ngini = 0.172\nsamples = 21\nvalue = [2, 19]\nclass = 1"] ;
36 -> 38 ;
39 [label="fare <= 152.506\ngini = 0.095\nsamples = 20\nvalue = [1, 19]\nclass = 1"] ;
38 -> 39 ;
40 [label="parch <= 1.0\ngini = 0.444\nsamples = 3\nvalue = [1, 2]\nclass = 1"] ;
39 -> 40 ;
41 [label="gini = 0.0\nsamples = 2\nvalue = [0, 2]\nclass = 1"] ;
40 -> 41 ;
42 [label="gini = 0.0\nsamples = 1\nvalue = [1, 0]\nclass = 0"] ;
40 -> 42 ;
43 [label="gini = 0.0\nsamples = 17\nvalue = [0, 17]\nclass = 1"] ;
39 -> 43 ;
44 [label="gini = 0.0\nsamples = 1\nvalue = [1, 0]\nclass = 0"] ;
38 -> 44 ;
45 [label="fare <= 23.087\ngini = 0.495\nsamples = 105\nvalue = [58, 47]\nclass = 0"] ;
1 -> 45 ;
46 [label="fare <= 7.267\ngini = 0.5\nsamples = 91\nvalue = [45, 46]\nclass = 1"] ;
45 -> 46 ;
47 [label="gini = 0.0\nsamples = 5\nvalue = [0, 5]\nclass = 1"] ;
46 -> 47 ;
48 [label="fare <= 15.621\ngini = 0.499\nsamples = 86\nvalue = [45, 41]\nclass = 0"] ;
46 -> 48 ;
49 [label="age <= 27.5\ngini = 0.489\nsamples = 68\nvalue = [39, 29]\nclass = 0"] ;
48 -> 49 ;
50 [label="fare <= 8.59\ngini = 0.5\nsamples = 48\nvalue = [24, 24]\nclass = 0"] ;
49 -> 50 ;
51 [label="Q <= 0.5\ngini = 0.461\nsamples = 25\nvalue = [9, 16]\nclass = 1"] ;
50 -> 51 ;
52 [label="fare <= 7.763\ngini = 0.375\nsamples = 16\nvalue = [4, 12]\nclass = 1"] ;
51 -> 52 ;
53 [label="gini = 0.0\nsamples = 4\nvalue = [0, 4]\nclass = 1"] ;
52 -> 53 ;
54 [label="fare <= 7.815\ngini = 0.444\nsamples = 12\nvalue = [4, 8]\nclass = 1"] ;
52 -> 54 ;
55 [label="age <= 20.0\ngini = 0.444\nsamples = 3\nvalue = [2, 1]\nclass = 0"] ;
54 -> 55 ;
56 [label="gini = 0.0\nsamples = 1\nvalue = [1, 0]\nclass = 0"] ;
55 -> 56 ;
57 [label="age <= 23.5\ngini = 0.5\nsamples = 2\nvalue = [1, 1]\nclass = 0"] ;
55 -> 57 ;
58 [label="gini = 0.0\nsamples = 1\nvalue = [0, 1]\nclass = 1"] ;
57 -> 58 ;
59 [label="gini = 0.0\nsamples = 1\nvalue = [1, 0]\nclass = 0"] ;
57 -> 59 ;
60 [label="fare <= 7.988\ngini = 0.346\nsamples = 9\nvalue = [2, 7]\nclass = 1"] ;
54 -> 60 ;
61 [label="age <= 24.5\ngini = 0.444\nsamples = 6\nvalue = [2, 4]\nclass = 1"] ;
60 -> 61 ;
62 [label="age <= 19.5\ngini = 0.5\nsamples = 4\nvalue = [2, 2]\nclass = 0"] ;
61 -> 62 ;
63 [label="gini = 0.0\nsamples = 1\nvalue = [0, 1]\nclass = 1"] ;
62 -> 63 ;
64 [label="fare <= 7.89\ngini = 0.444\nsamples = 3\nvalue = [2, 1]\nclass = 0"] ;
62 -> 64 ;
65 [label="age <= 21.5\ngini = 0.5\nsamples = 2\nvalue = [1, 1]\nclass = 0"] ;
64 -> 65 ;
66 [label="gini = 0.0\nsamples = 1\nvalue = [1, 0]\nclass = 0"] ;
65 -> 66 ;
67 [label="gini = 0.0\nsamples = 1\nvalue = [0, 1]\nclass = 1"] ;
65 -> 67 ;
68 [label="gini = 0.0\nsamples = 1\nvalue = [1, 0]\nclass = 0"] ;
64 -> 68 ;
69 [label="gini = 0.0\nsamples = 2\nvalue = [0, 2]\nclass = 1"] ;
61 -> 69 ;
70 [label="gini = 0.0\nsamples = 3\nvalue = [0, 3]\nclass = 1"] ;
60 -> 70 ;
71 [label="age <= 23.0\ngini = 0.494\nsamples = 9\nvalue = [5, 4]\nclass = 0"] ;
51 -> 71 ;
72 [label="age <= 21.5\ngini = 0.49\nsamples = 7\nvalue = [3, 4]\nclass = 1"] ;
71 -> 72 ;
73 [label="age <= 16.5\ngini = 0.48\nsamples = 5\nvalue = [3, 2]\nclass = 0"] ;
72 -> 73 ;
74 [label="gini = 0.0\nsamples = 1\nvalue = [0, 1]\nclass = 1"] ;
73 -> 74 ;
75 [label="fare <= 7.815\ngini = 0.375\nsamples = 4\nvalue = [3, 1]\nclass = 0"] ;
73 -> 75 ;
76 [label="gini = 0.0\nsamples = 3\nvalue = [3, 0]\nclass = 0"] ;
75 -> 76 ;
77 [label="gini = 0.0\nsamples = 1\nvalue = [0, 1]\nclass = 1"] ;
75 -> 77 ;
78 [label="gini = 0.0\nsamples = 2\nvalue = [0, 2]\nclass = 1"] ;
72 -> 78 ;
79 [label="gini = 0.0\nsamples = 2\nvalue = [2, 0]\nclass = 0"] ;
71 -> 79 ;
80 [label="fare <= 10.825\ngini = 0.454\nsamples = 23\nvalue = [15, 8]\nclass = 0"] ;
50 -> 80 ;
81 [label="parch <= 0.5\ngini = 0.18\nsamples = 10\nvalue = [9, 1]\nclass = 0"] ;
80 -> 81 ;
82 [label="gini = 0.0\nsamples = 8\nvalue = [8, 0]\nclass = 0"] ;
81 -> 82 ;
83 [label="fare <= 9.906\ngini = 0.5\nsamples = 2\nvalue = [1, 1]\nclass = 0"] ;
81 -> 83 ;
84 [label="gini = 0.0\nsamples = 1\nvalue = [0, 1]\nclass = 1"] ;
83 -> 84 ;
85 [label="gini = 0.0\nsamples = 1\nvalue = [1, 0]\nclass = 0"] ;
83 -> 85 ;
86 [label="fare <= 13.596\ngini = 0.497\nsamples = 13\nvalue = [6, 7]\nclass = 1"] ;
80 -> 86 ;
87 [label="age <= 2.5\ngini = 0.278\nsamples = 6\nvalue = [1, 5]\nclass = 1"] ;
86 -> 87 ;
88 [label="fare <= 11.658\ngini = 0.5\nsamples = 2\nvalue = [1, 1]\nclass = 0"] ;
87 -> 88 ;
89 [label="gini = 0.0\nsamples = 1\nvalue = [0, 1]\nclass = 1"] ;
88 -> 89 ;
90 [label="gini = 0.0\nsamples = 1\nvalue = [1, 0]\nclass = 0"] ;
88 -> 90 ;
91 [label="gini = 0.0\nsamples = 4\nvalue = [0, 4]\nclass = 1"] ;
87 -> 91 ;
92 [label="age <= 16.5\ngini = 0.408\nsamples = 7\nvalue = [5, 2]\nclass = 0"] ;
86 -> 92 ;
93 [label="age <= 14.75\ngini = 0.48\nsamples = 5\nvalue = [3, 2]\nclass = 0"] ;
92 -> 93 ;
94 [label="fare <= 14.85\ngini = 0.375\nsamples = 4\nvalue = [3, 1]\nclass = 0"] ;
93 -> 94 ;
95 [label="gini = 0.0\nsamples = 2\nvalue = [2, 0]\nclass = 0"] ;
94 -> 95 ;
96 [label="gini = 0.5\nsamples = 2\nvalue = [1, 1]\nclass = 0"] ;
94 -> 96 ;
97 [label="gini = 0.0\nsamples = 1\nvalue = [0, 1]\nclass = 1"] ;
93 -> 97 ;
98 [label="gini = 0.0\nsamples = 2\nvalue = [2, 0]\nclass = 0"] ;
92 -> 98 ;
99 [label="fare <= 8.673\ngini = 0.375\nsamples = 20\nvalue = [15, 5]\nclass = 0"] ;
49 -> 99 ;
100 [label="gini = 0.0\nsamples = 8\nvalue = [8, 0]\nclass = 0"] ;
99 -> 100 ;
101 [label="age <= 31.5\ngini = 0.486\nsamples = 12\nvalue = [7, 5]\nclass = 0"] ;
99 -> 101 ;
102 [label="sibsp <= 0.5\ngini = 0.375\nsamples = 4\nvalue = [1, 3]\nclass = 1"] ;
101 -> 102 ;
103 [label="gini = 0.0\nsamples = 3\nvalue = [0, 3]\nclass = 1"] ;
102 -> 103 ;
104 [label="gini = 0.0\nsamples = 1\nvalue = [1, 0]\nclass = 0"] ;
102 -> 104 ;
105 [label="age <= 55.0\ngini = 0.375\nsamples = 8\nvalue = [6, 2]\nclass = 0"] ;
101 -> 105 ;
106 [label="age <= 42.5\ngini = 0.245\nsamples = 7\nvalue = [6, 1]\nclass = 0"] ;
105 -> 106 ;
107 [label="gini = 0.0\nsamples = 4\nvalue = [4, 0]\nclass = 0"] ;
106 -> 107 ;
108 [label="fare <= 14.281\ngini = 0.444\nsamples = 3\nvalue = [2, 1]\nclass = 0"] ;
106 -> 108 ;
109 [label="gini = 0.0\nsamples = 1\nvalue = [0, 1]\nclass = 1"] ;
108 -> 109 ;
110 [label="gini = 0.0\nsamples = 2\nvalue = [2, 0]\nclass = 0"] ;
108 -> 110 ;
111 [label="gini = 0.0\nsamples = 1\nvalue = [0, 1]\nclass = 1"] ;
105 -> 111 ;
112 [label="fare <= 17.6\ngini = 0.444\nsamples = 18\nvalue = [6, 12]\nclass = 1"] ;
48 -> 112 ;
113 [label="age <= 25.0\ngini = 0.219\nsamples = 8\nvalue = [1, 7]\nclass = 1"] ;
112 -> 113 ;
114 [label="gini = 0.0\nsamples = 5\nvalue = [0, 5]\nclass = 1"] ;
113 -> 114 ;
115 [label="age <= 29.5\ngini = 0.444\nsamples = 3\nvalue = [1, 2]\nclass = 1"] ;
113 -> 115 ;
116 [label="gini = 0.0\nsamples = 1\nvalue = [1, 0]\nclass = 0"] ;
115 -> 116 ;
117 [label="gini = 0.0\nsamples = 2\nvalue = [0, 2]\nclass = 1"] ;
115 -> 117 ;
118 [label="parch <= 0.5\ngini = 0.5\nsamples = 10\nvalue = [5, 5]\nclass = 0"] ;
112 -> 118 ;
119 [label="gini = 0.0\nsamples = 2\nvalue = [2, 0]\nclass = 0"] ;
118 -> 119 ;
120 [label="parch <= 3.5\ngini = 0.469\nsamples = 8\nvalue = [3, 5]\nclass = 1"] ;
118 -> 120 ;
121 [label="age <= 38.0\ngini = 0.408\nsamples = 7\nvalue = [2, 5]\nclass = 1"] ;
120 -> 121 ;
122 [label="age <= 13.0\ngini = 0.278\nsamples = 6\nvalue = [1, 5]\nclass = 1"] ;
121 -> 122 ;
123 [label="fare <= 19.735\ngini = 0.5\nsamples = 2\nvalue = [1, 1]\nclass = 0"] ;
122 -> 123 ;
124 [label="gini = 0.0\nsamples = 1\nvalue = [0, 1]\nclass = 1"] ;
123 -> 124 ;
125 [label="gini = 0.0\nsamples = 1\nvalue = [1, 0]\nclass = 0"] ;
123 -> 125 ;
126 [label="gini = 0.0\nsamples = 4\nvalue = [0, 4]\nclass = 1"] ;
122 -> 126 ;
127 [label="gini = 0.0\nsamples = 1\nvalue = [1, 0]\nclass = 0"] ;
121 -> 127 ;
128 [label="gini = 0.0\nsamples = 1\nvalue = [1, 0]\nclass = 0"] ;
120 -> 128 ;
129 [label="age <= 5.5\ngini = 0.133\nsamples = 14\nvalue = [13, 1]\nclass = 0"] ;
45 -> 129 ;
130 [label="gini = 0.0\nsamples = 1\nvalue = [0, 1]\nclass = 1"] ;
129 -> 130 ;
131 [label="gini = 0.0\nsamples = 13\nvalue = [13, 0]\nclass = 0"] ;
129 -> 131 ;
132 [label="age <= 14.25\ngini = 0.318\nsamples = 469\nvalue = [376, 93]\nclass = 0"] ;
0 -> 132 [labeldistance=2.5, labelangle=-45, headlabel="False"] ;
133 [label="sibsp <= 2.5\ngini = 0.499\nsamples = 42\nvalue = [20, 22]\nclass = 1"] ;
132 -> 133 ;
134 [label="age <= 0.792\ngini = 0.269\nsamples = 25\nvalue = [4, 21]\nclass = 1"] ;
133 -> 134 ;
135 [label="gini = 0.0\nsamples = 1\nvalue = [1, 0]\nclass = 0"] ;
134 -> 135 ;
136 [label="age <= 11.25\ngini = 0.219\nsamples = 24\nvalue = [3, 21]\nclass = 1"] ;
134 -> 136 ;
137 [label="S <= 0.5\ngini = 0.1\nsamples = 19\nvalue = [1, 18]\nclass = 1"] ;
136 -> 137 ;
138 [label="fare <= 26.125\ngini = 0.375\nsamples = 4\nvalue = [1, 3]\nclass = 1"] ;
137 -> 138 ;
139 [label="age <= 6.5\ngini = 0.5\nsamples = 2\nvalue = [1, 1]\nclass = 0"] ;
138 -> 139 ;
140 [label="gini = 0.0\nsamples = 1\nvalue = [1, 0]\nclass = 0"] ;
139 -> 140 ;
141 [label="gini = 0.0\nsamples = 1\nvalue = [0, 1]\nclass = 1"] ;
139 -> 141 ;
142 [label="gini = 0.0\nsamples = 2\nvalue = [0, 2]\nclass = 1"] ;
138 -> 142 ;
143 [label="gini = 0.0\nsamples = 15\nvalue = [0, 15]\nclass = 1"] ;
137 -> 143 ;
144 [label="C <= 0.5\ngini = 0.48\nsamples = 5\nvalue = [2, 3]\nclass = 1"] ;
136 -> 144 ;
145 [label="parch <= 0.5\ngini = 0.444\nsamples = 3\nvalue = [2, 1]\nclass = 0"] ;
144 -> 145 ;
146 [label="gini = 0.0\nsamples = 1\nvalue = [0, 1]\nclass = 1"] ;
145 -> 146 ;
147 [label="gini = 0.0\nsamples = 2\nvalue = [2, 0]\nclass = 0"] ;
145 -> 147 ;
148 [label="gini = 0.0\nsamples = 2\nvalue = [0, 2]\nclass = 1"] ;
144 -> 148 ;
149 [label="age <= 3.5\ngini = 0.111\nsamples = 17\nvalue = [16, 1]\nclass = 0"] ;
133 -> 149 ;
150 [label="age <= 2.5\ngini = 0.32\nsamples = 5\nvalue = [4, 1]\nclass = 0"] ;
149 -> 150 ;
151 [label="gini = 0.0\nsamples = 4\nvalue = [4, 0]\nclass = 0"] ;
150 -> 151 ;
152 [label="gini = 0.0\nsamples = 1\nvalue = [0, 1]\nclass = 1"] ;
150 -> 152 ;
153 [label="gini = 0.0\nsamples = 12\nvalue = [12, 0]\nclass = 0"] ;
149 -> 153 ;
154 [label="1st_class <= 0.5\ngini = 0.277\nsamples = 427\nvalue = [356, 71]\nclass = 0"] ;
132 -> 154 ;
155 [label="age <= 32.25\ngini = 0.224\nsamples = 327\nvalue = [285, 42]\nclass = 0"] ;
154 -> 155 ;
156 [label="age <= 30.75\ngini = 0.279\nsamples = 221\nvalue = [184, 37]\nclass = 0"] ;
155 -> 156 ;
157 [label="C <= 0.5\ngini = 0.257\nsamples = 205\nvalue = [174, 31]\nclass = 0"] ;
156 -> 157 ;
158 [label="fare <= 7.837\ngini = 0.222\nsamples = 181\nvalue = [158, 23]\nclass = 0"] ;
157 -> 158 ;
159 [label="fare <= 7.785\ngini = 0.365\nsamples = 50\nvalue = [38, 12]\nclass = 0"] ;
158 -> 159 ;
160 [label="age <= 23.5\ngini = 0.26\nsamples = 39\nvalue = [33, 6]\nclass = 0"] ;
159 -> 160 ;
161 [label="gini = 0.0\nsamples = 21\nvalue = [21, 0]\nclass = 0"] ;
160 -> 161 ;
162 [label="fare <= 3.525\ngini = 0.444\nsamples = 18\nvalue = [12, 6]\nclass = 0"] ;
160 -> 162 ;
163 [label="gini = 0.0\nsamples = 1\nvalue = [0, 1]\nclass = 1"] ;
162 -> 163 ;
164 [label="Q <= 0.5\ngini = 0.415\nsamples = 17\nvalue = [12, 5]\nclass = 0"] ;
162 -> 164 ;
165 [label="age <= 27.5\ngini = 0.444\nsamples = 15\nvalue = [10, 5]\nclass = 0"] ;
164 -> 165 ;
166 [label="fare <= 7.096\ngini = 0.473\nsamples = 13\nvalue = [8, 5]\nclass = 0"] ;
165 -> 166 ;
167 [label="gini = 0.0\nsamples = 2\nvalue = [2, 0]\nclass = 0"] ;
166 -> 167 ;
168 [label="fare <= 7.319\ngini = 0.496\nsamples = 11\nvalue = [6, 5]\nclass = 0"] ;
166 -> 168 ;
169 [label="gini = 0.0\nsamples = 1\nvalue = [0, 1]\nclass = 1"] ;
168 -> 169 ;
170 [label="fare <= 7.523\ngini = 0.48\nsamples = 10\nvalue = [6, 4]\nclass = 0"] ;
168 -> 170 ;
171 [label="gini = 0.0\nsamples = 1\nvalue = [1, 0]\nclass = 0"] ;
170 -> 171 ;
172 [label="fare <= 7.6\ngini = 0.494\nsamples = 9\nvalue = [5, 4]\nclass = 0"] ;
170 -> 172 ;
173 [label="gini = 0.0\nsamples = 1\nvalue = [0, 1]\nclass = 1"] ;
172 -> 173 ;
174 [label="age <= 24.5\ngini = 0.469\nsamples = 8\nvalue = [5, 3]\nclass = 0"] ;
172 -> 174 ;
175 [label="gini = 0.0\nsamples = 1\nvalue = [1, 0]\nclass = 0"] ;
174 -> 175 ;
176 [label="age <= 25.5\ngini = 0.49\nsamples = 7\nvalue = [4, 3]\nclass = 0"] ;
174 -> 176 ;
177 [label="fare <= 7.713\ngini = 0.5\nsamples = 4\nvalue = [2, 2]\nclass = 0"] ;
176 -> 177 ;
178 [label="gini = 0.5\nsamples = 2\nvalue = [1, 1]\nclass = 0"] ;
177 -> 178 ;
179 [label="gini = 0.5\nsamples = 2\nvalue = [1, 1]\nclass = 0"] ;
177 -> 179 ;
180 [label="gini = 0.444\nsamples = 3\nvalue = [2, 1]\nclass = 0"] ;
176 -> 180 ;
181 [label="gini = 0.0\nsamples = 2\nvalue = [2, 0]\nclass = 0"] ;
165 -> 181 ;
182 [label="gini = 0.0\nsamples = 2\nvalue = [2, 0]\nclass = 0"] ;
164 -> 182 ;
183 [label="age <= 19.5\ngini = 0.496\nsamples = 11\nvalue = [5, 6]\nclass = 1"] ;
159 -> 183 ;
184 [label="gini = 0.0\nsamples = 1\nvalue = [1, 0]\nclass = 0"] ;
183 -> 184 ;
185 [label="age <= 27.5\ngini = 0.48\nsamples = 10\nvalue = [4, 6]\nclass = 1"] ;
183 -> 185 ;
186 [label="age <= 24.5\ngini = 0.444\nsamples = 9\nvalue = [3, 6]\nclass = 1"] ;
185 -> 186 ;
187 [label="age <= 23.5\ngini = 0.49\nsamples = 7\nvalue = [3, 4]\nclass = 1"] ;
186 -> 187 ;
188 [label="age <= 22.5\ngini = 0.444\nsamples = 6\nvalue = [2, 4]\nclass = 1"] ;
187 -> 188 ;
189 [label="age <= 21.5\ngini = 0.48\nsamples = 5\nvalue = [2, 3]\nclass = 1"] ;
188 -> 189 ;
190 [label="fare <= 7.798\ngini = 0.375\nsamples = 4\nvalue = [1, 3]\nclass = 1"] ;
189 -> 190 ;
191 [label="gini = 0.0\nsamples = 2\nvalue = [0, 2]\nclass = 1"] ;
190 -> 191 ;
192 [label="fare <= 7.81\ngini = 0.5\nsamples = 2\nvalue = [1, 1]\nclass = 0"] ;
190 -> 192 ;
193 [label="gini = 0.0\nsamples = 1\nvalue = [1, 0]\nclass = 0"] ;
192 -> 193 ;
194 [label="gini = 0.0\nsamples = 1\nvalue = [0, 1]\nclass = 1"] ;
192 -> 194 ;
195 [label="gini = 0.0\nsamples = 1\nvalue = [1, 0]\nclass = 0"] ;
189 -> 195 ;
196 [label="gini = 0.0\nsamples = 1\nvalue = [0, 1]\nclass = 1"] ;
188 -> 196 ;
197 [label="gini = 0.0\nsamples = 1\nvalue = [1, 0]\nclass = 0"] ;
187 -> 197 ;
198 [label="gini = 0.0\nsamples = 2\nvalue = [0, 2]\nclass = 1"] ;
186 -> 198 ;
199 [label="gini = 0.0\nsamples = 1\nvalue = [1, 0]\nclass = 0"] ;
185 -> 199 ;
200 [label="age <= 20.5\ngini = 0.154\nsamples = 131\nvalue = [120, 11]\nclass = 0"] ;
158 -> 200 ;
201 [label="fare <= 8.104\ngini = 0.266\nsamples = 38\nvalue = [32, 6]\nclass = 0"] ;
200 -> 201 ;
202 [label="fare <= 7.91\ngini = 0.444\nsamples = 15\nvalue = [10, 5]\nclass = 0"] ;
201 -> 202 ;
203 [label="gini = 0.0\nsamples = 5\nvalue = [5, 0]\nclass = 0"] ;
202 -> 203 ;
204 [label="sibsp <= 1.5\ngini = 0.5\nsamples = 10\nvalue = [5, 5]\nclass = 0"] ;
202 -> 204 ;
205 [label="sibsp <= 0.5\ngini = 0.494\nsamples = 9\nvalue = [4, 5]\nclass = 1"] ;
204 -> 205 ;
206 [label="age <= 18.5\ngini = 0.5\nsamples = 8\nvalue = [4, 4]\nclass = 0"] ;
205 -> 206 ;
207 [label="age <= 17.0\ngini = 0.444\nsamples = 3\nvalue = [1, 2]\nclass = 1"] ;
206 -> 207 ;
208 [label="gini = 0.5\nsamples = 2\nvalue = [1, 1]\nclass = 0"] ;
207 -> 208 ;
209 [label="gini = 0.0\nsamples = 1\nvalue = [0, 1]\nclass = 1"] ;
207 -> 209 ;
210 [label="fare <= 7.988\ngini = 0.48\nsamples = 5\nvalue = [3, 2]\nclass = 0"] ;
206 -> 210 ;
211 [label="gini = 0.5\nsamples = 2\nvalue = [1, 1]\nclass = 0"] ;
210 -> 211 ;
212 [label="age <= 19.5\ngini = 0.444\nsamples = 3\nvalue = [2, 1]\nclass = 0"] ;
210 -> 212 ;
213 [label="gini = 0.5\nsamples = 2\nvalue = [1, 1]\nclass = 0"] ;
212 -> 213 ;
214 [label="gini = 0.0\nsamples = 1\nvalue = [1, 0]\nclass = 0"] ;
212 -> 214 ;
215 [label="gini = 0.0\nsamples = 1\nvalue = [0, 1]\nclass = 1"] ;
205 -> 215 ;
216 [label="gini = 0.0\nsamples = 1\nvalue = [1, 0]\nclass = 0"] ;
204 -> 216 ;
217 [label="age <= 18.75\ngini = 0.083\nsamples = 23\nvalue = [22, 1]\nclass = 0"] ;
201 -> 217 ;
218 [label="gini = 0.0\nsamples = 18\nvalue = [18, 0]\nclass = 0"] ;
217 -> 218 ;
219 [label="parch <= 0.5\ngini = 0.32\nsamples = 5\nvalue = [4, 1]\nclass = 0"] ;
217 -> 219 ;
220 [label="2nd_class <= 0.5\ngini = 0.375\nsamples = 4\nvalue = [3, 1]\nclass = 0"] ;
219 -> 220 ;
221 [label="gini = 0.0\nsamples = 1\nvalue = [1, 0]\nclass = 0"] ;
220 -> 221 ;
222 [label="gini = 0.444\nsamples = 3\nvalue = [2, 1]\nclass = 0"] ;
220 -> 222 ;
223 [label="gini = 0.0\nsamples = 1\nvalue = [1, 0]\nclass = 0"] ;
219 -> 223 ;
224 [label="sibsp <= 2.5\ngini = 0.102\nsamples = 93\nvalue = [88, 5]\nclass = 0"] ;
200 -> 224 ;
225 [label="parch <= 0.5\ngini = 0.083\nsamples = 92\nvalue = [88, 4]\nclass = 0"] ;
224 -> 225 ;
226 [label="fare <= 11.0\ngini = 0.067\nsamples = 87\nvalue = [84, 3]\nclass = 0"] ;
225 -> 226 ;
227 [label="fare <= 8.356\ngini = 0.107\nsamples = 53\nvalue = [50, 3]\nclass = 0"] ;
226 -> 227 ;
228 [label="gini = 0.0\nsamples = 31\nvalue = [31, 0]\nclass = 0"] ;
227 -> 228 ;
229 [label="age <= 27.5\ngini = 0.236\nsamples = 22\nvalue = [19, 3]\nclass = 0"] ;
227 -> 229 ;
230 [label="age <= 26.5\ngini = 0.291\nsamples = 17\nvalue = [14, 3]\nclass = 0"] ;
229 -> 230 ;
231 [label="fare <= 9.425\ngini = 0.231\nsamples = 15\nvalue = [13, 2]\nclass = 0"] ;
230 -> 231 ;
232 [label="gini = 0.0\nsamples = 7\nvalue = [7, 0]\nclass = 0"] ;
231 -> 232 ;
233 [label="age <= 22.5\ngini = 0.375\nsamples = 8\nvalue = [6, 2]\nclass = 0"] ;
231 -> 233 ;
234 [label="gini = 0.0\nsamples = 1\nvalue = [0, 1]\nclass = 1"] ;
233 -> 234 ;
235 [label="2nd_class <= 0.5\ngini = 0.245\nsamples = 7\nvalue = [6, 1]\nclass = 0"] ;
233 -> 235 ;
236 [label="age <= 24.5\ngini = 0.5\nsamples = 2\nvalue = [1, 1]\nclass = 0"] ;
235 -> 236 ;
237 [label="gini = 0.0\nsamples = 1\nvalue = [1, 0]\nclass = 0"] ;
236 -> 237 ;
238 [label="gini = 0.0\nsamples = 1\nvalue = [0, 1]\nclass = 1"] ;
236 -> 238 ;
239 [label="gini = 0.0\nsamples = 5\nvalue = [5, 0]\nclass = 0"] ;
235 -> 239 ;
240 [label="gini = 0.5\nsamples = 2\nvalue = [1, 1]\nclass = 0"] ;
230 -> 240 ;
241 [label="gini = 0.0\nsamples = 5\nvalue = [5, 0]\nclass = 0"] ;
229 -> 241 ;
242 [label="gini = 0.0\nsamples = 34\nvalue = [34, 0]\nclass = 0"] ;
226 -> 242 ;
243 [label="fare <= 27.5\ngini = 0.32\nsamples = 5\nvalue = [4, 1]\nclass = 0"] ;
225 -> 243 ;
244 [label="gini = 0.0\nsamples = 3\nvalue = [3, 0]\nclass = 0"] ;
243 -> 244 ;
245 [label="age <= 27.0\ngini = 0.5\nsamples = 2\nvalue = [1, 1]\nclass = 0"] ;
243 -> 245 ;
246 [label="gini = 0.0\nsamples = 1\nvalue = [0, 1]\nclass = 1"] ;
245 -> 246 ;
247 [label="gini = 0.0\nsamples = 1\nvalue = [1, 0]\nclass = 0"] ;
245 -> 247 ;
248 [label="gini = 0.0\nsamples = 1\nvalue = [0, 1]\nclass = 1"] ;
224 -> 248 ;
249 [label="fare <= 7.562\ngini = 0.444\nsamples = 24\nvalue = [16, 8]\nclass = 0"] ;
157 -> 249 ;
250 [label="age <= 25.75\ngini = 0.32\nsamples = 15\nvalue = [12, 3]\nclass = 0"] ;
249 -> 250 ;
251 [label="age <= 24.25\ngini = 0.375\nsamples = 12\nvalue = [9, 3]\nclass = 0"] ;
250 -> 251 ;
252 [label="age <= 19.25\ngini = 0.32\nsamples = 10\nvalue = [8, 2]\nclass = 0"] ;
251 -> 252 ;
253 [label="gini = 0.0\nsamples = 2\nvalue = [2, 0]\nclass = 0"] ;
252 -> 253 ;
254 [label="age <= 22.25\ngini = 0.375\nsamples = 8\nvalue = [6, 2]\nclass = 0"] ;
252 -> 254 ;
255 [label="fare <= 5.619\ngini = 0.444\nsamples = 6\nvalue = [4, 2]\nclass = 0"] ;
254 -> 255 ;
256 [label="gini = 0.0\nsamples = 1\nvalue = [1, 0]\nclass = 0"] ;
255 -> 256 ;
257 [label="age <= 20.5\ngini = 0.48\nsamples = 5\nvalue = [3, 2]\nclass = 0"] ;
255 -> 257 ;
258 [label="fare <= 7.227\ngini = 0.5\nsamples = 2\nvalue = [1, 1]\nclass = 0"] ;
257 -> 258 ;
259 [label="gini = 0.0\nsamples = 1\nvalue = [1, 0]\nclass = 0"] ;
258 -> 259 ;
260 [label="gini = 0.0\nsamples = 1\nvalue = [0, 1]\nclass = 1"] ;
258 -> 260 ;
261 [label="fare <= 7.227\ngini = 0.444\nsamples = 3\nvalue = [2, 1]\nclass = 0"] ;
257 -> 261 ;
262 [label="age <= 21.5\ngini = 0.5\nsamples = 2\nvalue = [1, 1]\nclass = 0"] ;
261 -> 262 ;
263 [label="gini = 0.0\nsamples = 1\nvalue = [1, 0]\nclass = 0"] ;
262 -> 263 ;
264 [label="gini = 0.0\nsamples = 1\nvalue = [0, 1]\nclass = 1"] ;
262 -> 264 ;
265 [label="gini = 0.0\nsamples = 1\nvalue = [1, 0]\nclass = 0"] ;
261 -> 265 ;
266 [label="gini = 0.0\nsamples = 2\nvalue = [2, 0]\nclass = 0"] ;
254 -> 266 ;
267 [label="fare <= 7.227\ngini = 0.5\nsamples = 2\nvalue = [1, 1]\nclass = 0"] ;
251 -> 267 ;
268 [label="gini = 0.0\nsamples = 1\nvalue = [1, 0]\nclass = 0"] ;
267 -> 268 ;
269 [label="gini = 0.0\nsamples = 1\nvalue = [0, 1]\nclass = 1"] ;
267 -> 269 ;
270 [label="gini = 0.0\nsamples = 3\nvalue = [3, 0]\nclass = 0"] ;
250 -> 270 ;
271 [label="fare <= 14.156\ngini = 0.494\nsamples = 9\nvalue = [4, 5]\nclass = 1"] ;
249 -> 271 ;
272 [label="gini = 0.0\nsamples = 3\nvalue = [0, 3]\nclass = 1"] ;
271 -> 272 ;
273 [label="2nd_class <= 0.5\ngini = 0.444\nsamples = 6\nvalue = [4, 2]\nclass = 0"] ;
271 -> 273 ;
274 [label="fare <= 15.098\ngini = 0.444\nsamples = 3\nvalue = [1, 2]\nclass = 1"] ;
273 -> 274 ;
275 [label="gini = 0.0\nsamples = 1\nvalue = [1, 0]\nclass = 0"] ;
274 -> 275 ;
276 [label="gini = 0.0\nsamples = 2\nvalue = [0, 2]\nclass = 1"] ;
274 -> 276 ;
277 [label="gini = 0.0\nsamples = 3\nvalue = [3, 0]\nclass = 0"] ;
273 -> 277 ;
278 [label="fare <= 46.75\ngini = 0.469\nsamples = 16\nvalue = [10, 6]\nclass = 0"] ;
156 -> 278 ;
279 [label="fare <= 7.988\ngini = 0.444\nsamples = 15\nvalue = [10, 5]\nclass = 0"] ;
278 -> 279 ;
280 [label="age <= 31.5\ngini = 0.48\nsamples = 5\nvalue = [2, 3]\nclass = 1"] ;
279 -> 280 ;
281 [label="fare <= 7.85\ngini = 0.5\nsamples = 2\nvalue = [1, 1]\nclass = 0"] ;
280 -> 281 ;
282 [label="gini = 0.0\nsamples = 1\nvalue = [1, 0]\nclass = 0"] ;
281 -> 282 ;
283 [label="gini = 0.0\nsamples = 1\nvalue = [0, 1]\nclass = 1"] ;
281 -> 283 ;
284 [label="fare <= 7.89\ngini = 0.444\nsamples = 3\nvalue = [1, 2]\nclass = 1"] ;
280 -> 284 ;
285 [label="gini = 0.0\nsamples = 2\nvalue = [0, 2]\nclass = 1"] ;
284 -> 285 ;
286 [label="gini = 0.0\nsamples = 1\nvalue = [1, 0]\nclass = 0"] ;
284 -> 286 ;
287 [label="fare <= 11.75\ngini = 0.32\nsamples = 10\nvalue = [8, 2]\nclass = 0"] ;
279 -> 287 ;
288 [label="gini = 0.0\nsamples = 3\nvalue = [3, 0]\nclass = 0"] ;
287 -> 288 ;
289 [label="fare <= 13.25\ngini = 0.408\nsamples = 7\nvalue = [5, 2]\nclass = 0"] ;
287 -> 289 ;
290 [label="gini = 0.0\nsamples = 1\nvalue = [0, 1]\nclass = 1"] ;
289 -> 290 ;
291 [label="age <= 31.5\ngini = 0.278\nsamples = 6\nvalue = [5, 1]\nclass = 0"] ;
289 -> 291 ;
292 [label="gini = 0.0\nsamples = 3\nvalue = [3, 0]\nclass = 0"] ;
291 -> 292 ;
293 [label="fare <= 20.925\ngini = 0.444\nsamples = 3\nvalue = [2, 1]\nclass = 0"] ;
291 -> 293 ;
294 [label="gini = 0.0\nsamples = 2\nvalue = [2, 0]\nclass = 0"] ;
293 -> 294 ;
295 [label="gini = 0.0\nsamples = 1\nvalue = [0, 1]\nclass = 1"] ;
293 -> 295 ;
296 [label="gini = 0.0\nsamples = 1\nvalue = [0, 1]\nclass = 1"] ;
278 -> 296 ;
297 [label="age <= 45.25\ngini = 0.09\nsamples = 106\nvalue = [101, 5]\nclass = 0"] ;
155 -> 297 ;
298 [label="age <= 44.5\ngini = 0.124\nsamples = 75\nvalue = [70, 5]\nclass = 0"] ;
297 -> 298 ;
299 [label="age <= 43.5\ngini = 0.102\nsamples = 74\nvalue = [70, 4]\nclass = 0"] ;
298 -> 299 ;
300 [label="fare <= 12.938\ngini = 0.082\nsamples = 70\nvalue = [67, 3]\nclass = 0"] ;
299 -> 300 ;
301 [label="gini = 0.0\nsamples = 37\nvalue = [37, 0]\nclass = 0"] ;
300 -> 301 ;
302 [label="fare <= 13.763\ngini = 0.165\nsamples = 33\nvalue = [30, 3]\nclass = 0"] ;
300 -> 302 ;
303 [label="2nd_class <= 0.5\ngini = 0.397\nsamples = 11\nvalue = [8, 3]\nclass = 0"] ;
302 -> 303 ;
304 [label="gini = 0.0\nsamples = 1\nvalue = [0, 1]\nclass = 1"] ;
303 -> 304 ;
305 [label="age <= 35.0\ngini = 0.32\nsamples = 10\nvalue = [8, 2]\nclass = 0"] ;
303 -> 305 ;
306 [label="gini = 0.5\nsamples = 2\nvalue = [1, 1]\nclass = 0"] ;
305 -> 306 ;
307 [label="age <= 41.5\ngini = 0.219\nsamples = 8\nvalue = [7, 1]\nclass = 0"] ;
305 -> 307 ;
308 [label="gini = 0.0\nsamples = 5\nvalue = [5, 0]\nclass = 0"] ;
307 -> 308 ;
309 [label="gini = 0.444\nsamples = 3\nvalue = [2, 1]\nclass = 0"] ;
307 -> 309 ;
310 [label="gini = 0.0\nsamples = 22\nvalue = [22, 0]\nclass = 0"] ;
302 -> 310 ;
311 [label="fare <= 7.988\ngini = 0.375\nsamples = 4\nvalue = [3, 1]\nclass = 0"] ;
299 -> 311 ;
312 [label="gini = 0.0\nsamples = 1\nvalue = [0, 1]\nclass = 1"] ;
311 -> 312 ;
313 [label="gini = 0.0\nsamples = 3\nvalue = [3, 0]\nclass = 0"] ;
311 -> 313 ;
314 [label="gini = 0.0\nsamples = 1\nvalue = [0, 1]\nclass = 1"] ;
298 -> 314 ;
315 [label="gini = 0.0\nsamples = 31\nvalue = [31, 0]\nclass = 0"] ;
297 -> 315 ;
316 [label="fare <= 135.215\ngini = 0.412\nsamples = 100\nvalue = [71, 29]\nclass = 0"] ;
154 -> 316 ;
317 [label="sibsp <= 0.5\ngini = 0.439\nsamples = 89\nvalue = [60, 29]\nclass = 0"] ;
316 -> 317 ;
318 [label="fare <= 31.66\ngini = 0.354\nsamples = 61\nvalue = [47, 14]\nclass = 0"] ;
317 -> 318 ;
319 [label="fare <= 29.85\ngini = 0.444\nsamples = 33\nvalue = [22, 11]\nclass = 0"] ;
318 -> 319 ;
320 [label="fare <= 27.135\ngini = 0.365\nsamples = 25\nvalue = [19, 6]\nclass = 0"] ;
319 -> 320 ;
321 [label="age <= 37.0\ngini = 0.42\nsamples = 20\nvalue = [14, 6]\nclass = 0"] ;
320 -> 321 ;
322 [label="fare <= 26.194\ngini = 0.48\nsamples = 5\nvalue = [2, 3]\nclass = 1"] ;
321 -> 322 ;
323 [label="gini = 0.0\nsamples = 2\nvalue = [2, 0]\nclass = 0"] ;
322 -> 323 ;
324 [label="gini = 0.0\nsamples = 3\nvalue = [0, 3]\nclass = 1"] ;
322 -> 324 ;
325 [label="age <= 43.5\ngini = 0.32\nsamples = 15\nvalue = [12, 3]\nclass = 0"] ;
321 -> 325 ;
326 [label="gini = 0.0\nsamples = 5\nvalue = [5, 0]\nclass = 0"] ;
325 -> 326 ;
327 [label="age <= 53.5\ngini = 0.42\nsamples = 10\nvalue = [7, 3]\nclass = 0"] ;
325 -> 327 ;
328 [label="age <= 48.0\ngini = 0.5\nsamples = 6\nvalue = [3, 3]\nclass = 0"] ;
327 -> 328 ;
329 [label="age <= 45.5\ngini = 0.375\nsamples = 4\nvalue = [3, 1]\nclass = 0"] ;
328 -> 329 ;
330 [label="gini = 0.5\nsamples = 2\nvalue = [1, 1]\nclass = 0"] ;
329 -> 330 ;
331 [label="gini = 0.0\nsamples = 2\nvalue = [2, 0]\nclass = 0"] ;
329 -> 331 ;
332 [label="gini = 0.0\nsamples = 2\nvalue = [0, 2]\nclass = 1"] ;
328 -> 332 ;
333 [label="gini = 0.0\nsamples = 4\nvalue = [4, 0]\nclass = 0"] ;
327 -> 333 ;
334 [label="gini = 0.0\nsamples = 5\nvalue = [5, 0]\nclass = 0"] ;
320 -> 334 ;
335 [label="S <= 0.5\ngini = 0.469\nsamples = 8\nvalue = [3, 5]\nclass = 1"] ;
319 -> 335 ;
336 [label="gini = 0.0\nsamples = 2\nvalue = [0, 2]\nclass = 1"] ;
335 -> 336 ;
337 [label="age <= 28.0\ngini = 0.5\nsamples = 6\nvalue = [3, 3]\nclass = 0"] ;
335 -> 337 ;
338 [label="gini = 0.0\nsamples = 1\nvalue = [0, 1]\nclass = 1"] ;
337 -> 338 ;
339 [label="age <= 46.5\ngini = 0.48\nsamples = 5\nvalue = [3, 2]\nclass = 0"] ;
337 -> 339 ;
340 [label="gini = 0.0\nsamples = 2\nvalue = [2, 0]\nclass = 0"] ;
339 -> 340 ;
341 [label="age <= 53.5\ngini = 0.444\nsamples = 3\nvalue = [1, 2]\nclass = 1"] ;
339 -> 341 ;
342 [label="gini = 0.0\nsamples = 1\nvalue = [0, 1]\nclass = 1"] ;
341 -> 342 ;
343 [label="fare <= 30.25\ngini = 0.5\nsamples = 2\nvalue = [1, 1]\nclass = 0"] ;
341 -> 343 ;
344 [label="gini = 0.0\nsamples = 1\nvalue = [0, 1]\nclass = 1"] ;
343 -> 344 ;
345 [label="gini = 0.0\nsamples = 1\nvalue = [1, 0]\nclass = 0"] ;
343 -> 345 ;
346 [label="age <= 27.5\ngini = 0.191\nsamples = 28\nvalue = [25, 3]\nclass = 0"] ;
318 -> 346 ;
347 [label="S <= 0.5\ngini = 0.49\nsamples = 7\nvalue = [4, 3]\nclass = 0"] ;
346 -> 347 ;
348 [label="age <= 23.5\ngini = 0.375\nsamples = 4\nvalue = [1, 3]\nclass = 1"] ;
347 -> 348 ;
349 [label="gini = 0.0\nsamples = 2\nvalue = [0, 2]\nclass = 1"] ;
348 -> 349 ;
350 [label="fare <= 77.965\ngini = 0.5\nsamples = 2\nvalue = [1, 1]\nclass = 0"] ;
348 -> 350 ;
351 [label="gini = 0.0\nsamples = 1\nvalue = [0, 1]\nclass = 1"] ;
350 -> 351 ;
352 [label="gini = 0.0\nsamples = 1\nvalue = [1, 0]\nclass = 0"] ;
350 -> 352 ;
353 [label="gini = 0.0\nsamples = 3\nvalue = [3, 0]\nclass = 0"] ;
347 -> 353 ;
354 [label="gini = 0.0\nsamples = 21\nvalue = [21, 0]\nclass = 0"] ;
346 -> 354 ;
355 [label="age <= 21.5\ngini = 0.497\nsamples = 28\nvalue = [13, 15]\nclass = 1"] ;
317 -> 355 ;
356 [label="gini = 0.0\nsamples = 2\nvalue = [2, 0]\nclass = 0"] ;
355 -> 356 ;
357 [label="C <= 0.5\ngini = 0.488\nsamples = 26\nvalue = [11, 15]\nclass = 1"] ;
355 -> 357 ;
358 [label="fare <= 106.75\ngini = 0.498\nsamples = 15\nvalue = [8, 7]\nclass = 0"] ;
357 -> 358 ;
359 [label="age <= 39.5\ngini = 0.473\nsamples = 13\nvalue = [8, 5]\nclass = 0"] ;
358 -> 359 ;
360 [label="fare <= 80.558\ngini = 0.49\nsamples = 7\nvalue = [3, 4]\nclass = 1"] ;
359 -> 360 ;
361 [label="fare <= 58.5\ngini = 0.48\nsamples = 5\nvalue = [3, 2]\nclass = 0"] ;
360 -> 361 ;
362 [label="parch <= 0.5\ngini = 0.444\nsamples = 3\nvalue = [1, 2]\nclass = 1"] ;
361 -> 362 ;
363 [label="fare <= 55.05\ngini = 0.5\nsamples = 2\nvalue = [1, 1]\nclass = 0"] ;
362 -> 363 ;
364 [label="gini = 0.0\nsamples = 1\nvalue = [1, 0]\nclass = 0"] ;
363 -> 364 ;
365 [label="gini = 0.0\nsamples = 1\nvalue = [0, 1]\nclass = 1"] ;
363 -> 365 ;
366 [label="gini = 0.0\nsamples = 1\nvalue = [0, 1]\nclass = 1"] ;
362 -> 366 ;
367 [label="gini = 0.0\nsamples = 2\nvalue = [2, 0]\nclass = 0"] ;
361 -> 367 ;
368 [label="gini = 0.0\nsamples = 2\nvalue = [0, 2]\nclass = 1"] ;
360 -> 368 ;
369 [label="parch <= 0.5\ngini = 0.278\nsamples = 6\nvalue = [5, 1]\nclass = 0"] ;
359 -> 369 ;
370 [label="gini = 0.0\nsamples = 4\nvalue = [4, 0]\nclass = 0"] ;
369 -> 370 ;
371 [label="age <= 54.0\ngini = 0.5\nsamples = 2\nvalue = [1, 1]\nclass = 0"] ;
369 -> 371 ;
372 [label="gini = 0.0\nsamples = 1\nvalue = [0, 1]\nclass = 1"] ;
371 -> 372 ;
373 [label="gini = 0.0\nsamples = 1\nvalue = [1, 0]\nclass = 0"] ;
371 -> 373 ;
374 [label="gini = 0.0\nsamples = 2\nvalue = [0, 2]\nclass = 1"] ;
358 -> 374 ;
375 [label="fare <= 98.752\ngini = 0.397\nsamples = 11\nvalue = [3, 8]\nclass = 1"] ;
357 -> 375 ;
376 [label="age <= 41.0\ngini = 0.198\nsamples = 9\nvalue = [1, 8]\nclass = 1"] ;
375 -> 376 ;
377 [label="age <= 34.5\ngini = 0.444\nsamples = 3\nvalue = [1, 2]\nclass = 1"] ;
376 -> 377 ;
378 [label="gini = 0.0\nsamples = 2\nvalue = [0, 2]\nclass = 1"] ;
377 -> 378 ;
379 [label="gini = 0.0\nsamples = 1\nvalue = [1, 0]\nclass = 0"] ;
377 -> 379 ;
380 [label="gini = 0.0\nsamples = 6\nvalue = [0, 6]\nclass = 1"] ;
376 -> 380 ;
381 [label="gini = 0.0\nsamples = 2\nvalue = [2, 0]\nclass = 0"] ;
375 -> 381 ;
382 [label="gini = 0.0\nsamples = 11\nvalue = [11, 0]\nclass = 0"] ;
316 -> 382 ;
}